<?xml version="1.0" encoding="UTF-8"?>
<!-- This network was created in GeNIe Academic, which can be used for academic teaching and research purposes only -->
<smile version="1.0" id="Network2" numsamples="10000" discsamples="10000">
	<nodes>
		<cpt id="X1">
			<state id="C" />
			<state id="SCL" />
			<state id="SYCL" />
			<state id="SC" />
			<state id="SL" />
			<state id="CL" />
			<probabilities>0.428 0.3 0.024 0.008 0.004 0.236</probabilities>
		</cpt>
		<cpt id="X2">
			<state id="Small" />
			<state id="Great" />
			<probabilities>0.436 0.5639999999999999</probabilities>
		</cpt>
		<cpt id="X20">
			<state id="Occurrence" />
			<state id="Nonoccurrence" />
			<probabilities>0.0135 0.9864999999999999</probabilities>
		</cpt>
		<cpt id="X3">
			<state id="Low" />
			<state id="Moderate" />
			<state id="High" />
			<parents>X20</parents>
			<probabilities>0.817897601 0.111165731 0.07093666800000002 0.930873869 0.038539313 0.03058681799999998</probabilities>
		</cpt>
		<cpt id="X4">
			<state id="Low" />
			<state id="Moderate" />
			<state id="High" />
			<probabilities>0.128 0.724 0.148</probabilities>
		</cpt>
		<cpt id="X5">
			<state id="Low" />
			<state id="Moderate" />
			<state id="High" />
			<probabilities>0.792 0.08400000000000001 0.124</probabilities>
		</cpt>
		<cpt id="X6">
			<state id="Low" />
			<state id="Moderate" />
			<state id="High" />
			<probabilities>0.02 0.948 0.032</probabilities>
		</cpt>
		<cpt id="X7">
			<state id="Low" />
			<state id="Moderate" />
			<state id="High" />
			<probabilities>0.472 0.5 0.028</probabilities>
		</cpt>
		<cpt id="X8">
			<state id="Low" />
			<state id="Moderate" />
			<state id="High" />
			<probabilities>0.92 0.068 0.012</probabilities>
		</cpt>
		<cpt id="X9">
			<state id="Low" />
			<state id="Moderate" />
			<state id="High" />
			<probabilities>0.464 0.44 0.096</probabilities>
		</cpt>
		<cpt id="X10">
			<state id="NC" />
			<state id="AEC" />
			<state id="WTC" />
			<state id="CTC" />
			<state id="FBE" />
			<probabilities>0.124 0.024 0.38 0.44 0.032</probabilities>
		</cpt>
		<cpt id="X11" dynamic="plate">
			<state id="Young" />
			<state id="Old" />
			<probabilities>0.824 0.176</probabilities>
		</cpt>
		<cpt id="A2" dynamic="plate">
			<state id="Yes" />
			<state id="No" />
			<parents>X10 X11 X1</parents>
			<probabilities>1 0 1 0 1 0 1 0 1 0 1 0 1 0 1 0 1 0 1 0 1 0 1 0 0.070257518 0.929742482 0.051758994 0.9482410059999999 0.05994278 0.94005722 0.05994278 0.94005722 0.044459083 0.955540917 0.051758994 0.9482410059999999 0.318353515 0.681646485 0.20936035 0.79063965 0.261093021 0.738906979 0.261093021 0.738906979 0.17233737 0.8276626300000001 0.20936035 0.79063965 0.03892392 0.96107608 0.030166701 0.969833299 0.037326489 0.962673511 0.037326489 0.962673511 0.024065417 0.975934583 0.030166701 0.969833299 0.163924273 0.836075727 0.113246791 0.886753209 0.138092994 0.861907006 0.138092994 0.861907006 0.094752498 0.905247502 0.113246791 0.886753209 0.030476241 0.969523759 0.023647611 0.976352389 0.024327349 0.975672651 0.024327349 0.975672651 0.017725616 0.982274384 0.023647611 0.976352389 0.174829206 0.825170794 0.1218233 0.8781767 0.147519131 0.852480869 0.147519131 0.852480869 0.102713984 0.897286016 0.1218233 0.8781767 0.016844304 0.983155696 0.010991378 0.9890086219999999 0.011656264 0.988343736 0.011656264 0.988343736 0.010834237 0.989165763 0.010991378 0.9890086219999999 0.052197545 0.947802455 0.037320344 0.9626796560000001 0.04435143 0.95564857 0.04435143 0.95564857 0.030539219 0.969460781 0.037320344 0.9626796560000001</probabilities>
		</cpt>
		<cpt id="X15">
			<state id="Low" />
			<state id="High" />
			<probabilities>0.516 0.484</probabilities>
		</cpt>
		<cpt id="Node4">
			<state id="Low" />
			<state id="Medium" />
			<state id="High" />
			<parents>X3 X2 X1</parents>
			<probabilities>0.189204409 0.651416038 0.159379553 0.593096815 0.285209018 0.121694167 0.42984275 0.427684222 0.1424730280000001 0.42984275 0.42768422 0.1424730300000001 0.73540058 0.173706696 0.09089272299999999 0.59309681 0.285209018 0.121694167 0.42984275 0.427684222 0.142473027 0.736421926 0.172605638 0.09097243599999999 0.589520234 0.288033615 0.122446151 0.589520234 0.288033615 0.122446151 0.8506321529999999 0.092248333 0.057119514 0.736421926 0.172605638 0.09097243599999999 0.153026395 0.597909808 0.249063797 0.294530954 0.552656146 0.1528128999999999 0.188865748 0.6518299239999999 0.159304327 0.188865748 0.6518299239999999 0.159304327 0.592634392 0.285769686 0.121595922 0.294530954 0.552656146 0.1528128999999999 0.188865748 0.6518299239999999 0.1593043280000001 0.593856327 0.284410746 0.121732927 0.428490027 0.429147717 0.142362256 0.428490027 0.429147717 0.142362256 0.736023612 0.173086721 0.09088966700000001 0.593856327 0.284410746 0.121732927 0.132449796 0.415238921 0.4523112830000001 0.190459634 0.650381507 0.159158859 0.153359599 0.5969160999999999 0.249724301 0.153359599 0.5969160999999999 0.249724301 0.294188933 0.5530915360000001 0.152719531 0.190459634 0.650381507 0.159158859 0.153359599 0.596916096 0.249724305 0.295299641 0.551902507 0.1527978520000001 0.188694015 0.651963239 0.159342746 0.188694015 0.651963239 0.159342746 0.59266888 0.285779443 0.121551677 0.295299641 0.551902507 0.1527978520000001</probabilities>
		</cpt>
		<cpt id="Node3">
			<state id="Low" />
			<state id="Medium" />
			<state id="High" />
			<parents>X5 X8 X7</parents>
			<probabilities>0.933173909 0.038287594 0.02853849700000003 0.5 0.5 0 0.5 0.5 0 0.5 0.5 0 0.5 0.5 0 0.5 0.5 0 0.5 0.5 0 0.5 0.5 0 0.5 0.5 0 0.5 0.5 0 0.5 0.5 0 0.5 0.5 0 0.5 0.5 0 0.5 0.5 0 0.5 0.5 0 0.5 0.5 0 0.5 0.5 0 0.5 0.5 0 0.5 0.5 0 0.5 0.5 0 0.5 0.5 0 0.5 0.5 0 0.5 0.5 0 0.5 0.5 0 0.5 0.5 0 0.5 0.5 0 0.5 0.5 0</probabilities>
		</cpt>
		<cpt id="Node2">
			<state id="Low" />
			<state id="Medium" />
			<state id="High" />
			<parents>X4 X6 X9</parents>
			<probabilities>0.162319966 0.576420419 0.2612596150000001 0.162540264 0.577349227 0.260110509 0.241850497 0.572872695 0.185276808 0.239969953 0.574216319 0.185813728 0.365312874 0.46911515 0.165571976 0.5309883909999999 0.331133413 0.1378781960000001 0.162319966 0.576420419 0.2612596150000001 0.162540264 0.577349227 0.260110509 0.241850497 0.572872695 0.185276808 0.162178345 0.576633328 0.2611883269999999 0.240623963 0.574212254 0.185163783 0.367179891 0.467394905 0.165425204 0.526694222 0.33435826 0.1389475179999999 0.715641784 0.185770531 0.09858768500000001 0.856430176 0.08865901299999999 0.05491081099999996 0.162178345 0.576633328 0.2611883269999999 0.240623963 0.574212254 0.185163783 0.367179891 0.467394905 0.165425204 0.363695848 0.470247106 0.166057046 0.528039741 0.33364523 0.138315029 0.717764179 0.18440244 0.097833381 0.713820255 0.186910413 0.09926933199999999 0.854577535 0.089831402 0.055591063 0.937344566 0.036273147 0.02638228699999996 0.363695848 0.470247106 0.166057046 0.528039741 0.33364523 0.138315029 0.717764179 0.18440244 0.097833381</probabilities>
		</cpt>
		<cpt id="A1">
			<state id="Low" />
			<state id="Moderate" />
			<state id="High" />
			<parents>Node4 Node3 Node2</parents>
			<probabilities>0.993097316 0.003497413 0.003405271000000048 0.801748217 0.126003102 0.07224868100000001 0.6225492419999999 0.260765105 0.116685653 0.801748217 0.126003102 0.07224868100000001 0.62367189 0.259841312 0.116486798 0.263641611 0.564950437 0.171407952 0.623013469 0.260551651 0.11643488 0.263787808 0.56506531 0.1711468819999999 0.117911573 0.645920826 0.236167601 0.915557793 0.049780224 0.03466198300000005 0.62367189 0.259841312 0.116486798 0.263641611 0.564950437 0.171407952 0.62367189 0.259841312 0.116486798 0.264157891 0.564619333 0.171222776 0.164254066 0.648104109 0.1876418249999999 0.263787808 0.565065312 0.17114688 0.164350424 0.648392312 0.187257264 0.117911573 0.645920826 0.236167601 0.623013469 0.260551651 0.11643488 0.418024516 0.431031784 0.1509437 0.164190687 0.64825217 0.1875571429999999 0.418024516 0.431031784 0.1509437 0.164350424 0.648392312 0.187257264 0.117911573 0.645920826 0.236167601 0.164305113 0.648504681 0.187190206 0.118015235 0.646420235 0.23556453 0.118099567 0.645850923 0.23604951</probabilities>
		</cpt>
		<cpt id="X16">
			<state id="Low" />
			<state id="Moderate" />
			<state id="High" />
			<probabilities>0.2092425 0.676433 0.1143245000000001</probabilities>
		</cpt>
		<cpt id="A4">
			<state id="Minor" />
			<state id="Moderate" />
			<state id="Severe" />
			<parents>X16 X15</parents>
			<probabilities>0.959963614 0.021487695 0.01854869100000003 0.7006777239999999 0.194031152 0.105291124 0.63894506 0.24471078 0.1163441600000001 0.204519853 0.483994598 0.31148555 0.216441216 0.390163951 0.393394833 0.01040443400000002 0.010577716 0.97901785</probabilities>
		</cpt>
		<cpt id="X19">
			<state id="Occurrence" />
			<state id="Nonoccurrence" />
			<probabilities>0.016 0.984</probabilities>
		</cpt>
		<cpt id="X18">
			<state id="Occurrence" />
			<state id="Nonoccurrence" />
			<probabilities>0.01 0.99</probabilities>
		</cpt>
		<cpt id="X17">
			<state id="Occurrence" />
			<state id="Nonoccurrence" />
			<probabilities>0.0004535 0.9995465</probabilities>
		</cpt>
		<cpt id="A5">
			<state id="Low" />
			<state id="Moderate" />
			<state id="High" />
			<parents>X20 X19 X18 X17</parents>
			<probabilities>0.8868466780000001 0.068079059 0.04507426299999995 0.901924798 0.057927978 0.04014722399999997 0.906852683 0.054669376 0.03847794100000001 0.9165594419999999 0.048339401 0.03510115700000006 0.9432896629999999 0.031478153 0.02523218400000005 0.954593913 0.024647546 0.02075854100000004 0.958877741 0.022138684 0.018983575 0.9731684940000001 0.014062634 0.012768873 0.901924798 0.057927978 0.04014722399999997 0.911730986 0.051473219 0.03679579499999998 0.921337814 0.045267785 0.03339440099999997 0.93854119 0.034351443 0.02710736699999997 0.963109926 0.019688928 0.01720114599999999 0.977237906 0.011801745 0.01096034899999995 0.98665462 0.006846653 0.006498726999999961 0.999595487 0.000202337 0.0002021759999999952</probabilities>
		</cpt>
		<cpt id="X14">
			<state id="Low" />
			<state id="Moderate" />
			<state id="High" />
			<probabilities>0.9639610280000001 0.018773519 0.01726545299999995</probabilities>
		</cpt>
		<cpt id="X13">
			<state id="Present" />
			<state id="Absent" />
			<probabilities>0.00304059 0.99695941</probabilities>
		</cpt>
		<cpt id="X12">
			<state id="Low" />
			<state id="Moderate" />
			<state id="High" />
			<probabilities>0.9845320910000001 0.008038506000000001 0.007429402999999946</probabilities>
		</cpt>
		<cpt id="A3">
			<state id="Low" />
			<state id="Moderate" />
			<state id="High" />
			<parents>X14 X13 X12</parents>
			<probabilities>0.996442487 0.001782608 0.001774905 0.995966371 0.00202216 0.002011469000000039 0.9954229489999999 0.002295197 0.002281854000000054 0.996983341 0.001511119 0.001505540000000033 0.996442487 0.001782608 0.001774904999999957 0.995966371 0.00202216 0.002011469000000039 0.9954229489999999 0.002295197 0.002281854000000054 0.99494427 0.002536471 0.002519259000000036 0.994398115 0.002811217 0.002790668000000029 0.995966371 0.00202216 0.002011469000000039 0.9954229489999999 0.002295197 0.002281854000000054 0.994944269 0.002536471 0.002519260000000008 0.99439811 0.002811217 0.002790672999999998 0.993916565 0.00305437 0.003029064999999971 0.990720305 0.004719897 0.004559798000000032 0.99494427 0.002536471 0.002519259000000036 0.99439811 0.002811217 0.002790672999999998 0.993916565 0.00305437 0.003029064999999971</probabilities>
		</cpt>
		<cpt id="E1" dynamic="plate">
			<state id="Low" />
			<state id="Moderate" />
			<state id="High" />
			<parents>A1 A4 A2 A5 A3</parents>
			<probabilities>0.407832521 0.44133281 0.150834669 0.301203493 0.5356743430000001 0.1631221639999999 0.301203493 0.5356743430000001 0.1631221639999999 0.301203493 0.5356743430000001 0.1631221639999999 0.301203493 0.5356743430000001 0.1631221639999999 0.219056925 0.612007799 0.1689352759999999 0.301203493 0.5356743430000001 0.1631221639999999 0.219056925 0.612007799 0.1689352759999999 0.20967935 0.62379517 0.16652548 0.9690262670000001 0.016192029 0.01478170399999995 0.9688924759999999 0.016938317 0.01416920700000005 0.916519335 0.049088976 0.03439168899999995 0.9688924759999999 0.016938317 0.01416920700000005 0.916519335 0.049088976 0.03439168899999995 0.915405355 0.049863073 0.03473157200000002 0.916519335 0.049088976 0.03439168899999995 0.915405355 0.049863073 0.03473157200000002 0.846533606 0.095392686 0.05807370799999995 0.218014417 0.613495712 0.168489871 0.166438046 0.6602294869999999 0.173332467 0.158483048 0.671455272 0.17006168 0.166438046 0.6602294869999999 0.173332467 0.158483048 0.671455272 0.17006168 0.13747028 0.680483075 0.1820466449999999 0.158483048 0.671455272 0.17006168 0.13747028 0.680483075 0.1820466449999999 0.131872341 0.685525443 0.182602216 0.845328106 0.096235895 0.05843599900000003 0.7550724049999999 0.161926504 0.08300109100000005 0.742964367 0.171577838 0.08545779499999998 0.7550724049999999 0.161926504 0.08300109100000005 0.742964367 0.171577838 0.08545779499999998 0.7312497019999999 0.177708925 0.09104137300000006 0.742964367 0.171577838 0.08545779499999998 0.7312497019999999 0.177708925 0.09104137300000006 0.647173449 0.243629645 0.109196906 0.137413959 0.680225285 0.182360756 0.118799767 0.6869482139999999 0.194252019 0.117899805 0.690383711 0.1917164840000001 0.118799767 0.6869482139999999 0.194252019 0.117899805 0.690383711 0.1917164840000001 0.117729661 0.691119362 0.1911509769999999 0.117899805 0.690383711 0.1917164840000001 0.117729661 0.691119362 0.1911509769999999 0.111499205 0.683353047 0.205147748 0.64604726 0.244559047 0.109393693 0.522440777 0.346059355 0.131499868 0.509510775 0.358208015 0.13228121 0.522440777 0.346059355 0.131499868 0.509510775 0.358208015 0.13228121 0.5 0.36 0.14 0.509510775 0.358208015 0.13228121 0.5 0.36 0.14 0.40580896 0.442972416 0.151218624 0.16719809 0.6588280010000001 0.173973909 0.166822075 0.659166391 0.174011534 0.138054168 0.679109088 0.1828367439999999 0.166822075 0.659166391 0.174011534 0.137091171 0.680466751 0.182442078 0.132435295 0.683978879 0.183585826 0.138054168 0.679109088 0.1828367439999999 0.132435295 0.683978879 0.183585826 0.127828686 0.6873682759999999 0.1848030380000001 0.756464181 0.160966731 0.08256908799999998 0.748396662 0.167102825 0.084500514 0.746449538 0.168681247 0.08486921499999997 0.748396662 0.167102825 0.084500514 0.746003521 0.169208693 0.084787786 0.6487455600000001 0.242453464 0.1088009759999999 0.746449538 0.168681247 0.08486921499999997 0.6487455600000001 0.242453464 0.1088009759999999 0.647811936 0.243313463 0.108874601 0.118848971 0.687156155 0.1939948739999999 0.118731201 0.6859188429999999 0.195349956 0.110146396 0.692532838 0.1973207660000001 0.118731201 0.6859188429999999 0.195349956 0.110146396 0.692532838 0.1973207660000001 0.11 0.6851287269999999 0.2048712730000001 0.110146396 0.692532838 0.1973207660000001 0.11 0.6851287269999999 0.2048712730000001 0.103122399 0.687549878 0.209327723 0.523286284 0.34545859 0.131255126 0.522265764 0.346431074 0.131303162 0.518465541 0.349803854 0.131730605 0.522265764 0.346431074 0.131303162 0.518465541 0.349803854 0.131730605 0.51163496 0.353706429 0.134658611 0.518465541 0.349803854 0.131730605 0.51163496 0.353706429 0.134658611 0.406504777 0.442502065 0.150993158 0.10676512 0.6661016870000001 0.2271331929999999 0.102460187 0.669311491 0.228228322 0.102332561 0.670003109 0.2276643299999999 0.102460187 0.669311491 0.228228322 0.102332561 0.670003109 0.2276643299999999 0.098087547 0.673195986 0.228716467 0.102332561 0.670003109 0.2276643299999999 0.098087547 0.673195986 0.228716467 0.09 0.68 0.23 0.299442842 0.537407211 0.1631499470000001 0.291389669 0.5407312990000001 0.167879032 0.290196517 0.542023222 0.167780261 0.291389669 0.5407312990000001 0.167879032 0.290196517 0.542023222 0.167780261 0.217762614 0.613512883 0.1687245030000001 0.290196517 0.542023222 0.167780261 0.217762614 0.613512883 0.1687245030000001 0.216768605 0.613904056 0.169327339 0.11938409 0.685587361 0.195028549 0.112001127 0.681997949 0.206000924 0.102961498 0.689320702 0.2077178 0.112001127 0.681997949 0.206000924 0.102961498 0.689320702 0.2077178 0.09816739300000001 0.693760395 0.208072212 0.102961498 0.689320702 0.2077178 0.09816739300000001 0.693760395 0.208072212 0.09036825 0.684291371 0.2253403789999999 0.524713728 0.344400602 0.13088567 0.524008649 0.345164008 0.130827343 0.407832521 0.44133281 0.150834669 0.524008649 0.345164008 0.130827343 0.407832521 0.44133281 0.150834669 0.400970499 0.442948239 0.1560812619999999 0.407832521 0.44133281 0.150834669 0.400970499 0.442948239 0.1560812619999999 0.301203493 0.5356743430000001 0.1631221639999999 0.106886228 0.666126005 0.226987767 0.102024424 0.654539306 0.24343627 0.09748854 0.648097512 0.2544139480000001 0.102024424 0.654539306 0.24343627 0.09748854 0.648097512 0.2544139480000001 0.09 0.653 0.257 0.09748854 0.648097512 0.2544139480000001 0.09 0.653 0.257 0.06999999999999995 0.67 0.26 0.299818987 0.537305673 0.16287534 0.292956137 0.544968055 0.162075808 0.218014417 0.613495712 0.168489871 0.292956137 0.544968055 0.162075808 0.218014417 0.613495712 0.168489871 0.211266124 0.618549044 0.170184832 0.218014417 0.613495712 0.168489871 0.211266124 0.618549044 0.170184832 0.166438046 0.6602294869999999 0.173332467 0.107261293 0.637052341 0.2556863660000001 0.102104257 0.644213962 0.2536817809999999 0.09950837 0.636473954 0.264017676 0.102104257 0.644213962 0.2536817809999999 0.09950837 0.636473954 0.264017676 0.09760732499999999 0.635678209 0.2667144659999999 0.09950837 0.636473954 0.264017676 0.09760732499999999 0.635678209 0.2667144659999999 0.08699999999999999 0.64 0.273 0.166254668 0.660162099 0.173583233 0.15 0.6699999999999999 0.18 0.137413959 0.680225285 0.182360756 0.15 0.6699999999999999 0.18 0.137413959 0.680225285 0.182360756 0.125 0.6839999999999999 0.191 0.137413959 0.680225285 0.182360756 0.118799767 0.6869482139999999 0.194252019 0.118799767 0.6869482139999999 0.194252019</probabilities>
		</cpt>
	</nodes>
	<dynamic numslices="10">
		<cpt id="X11" order="1">
			<parents>X11</parents>
			<probabilities>0.9806 0.01939999999999997 0 1</probabilities>
		</cpt>
		<cpt id="A2" order="1">
			<parents>A2</parents>
			<probabilities>1 0 1 0 1 0 1 0 1 0 1 0 1 0 1 0 1 0 1 0 1 0 1 0 1 0 1 0 1 0 1 0 1 0 1 0 1 0 1 0 1 0 1 0 1 0 1 0 1 0 0.199229 0.800771 1 0 0.176297 0.823703 1 0 0.184809 0.815191 1 0 0.184809 0.815191 1 0 0.170683 0.829317 1 0 0.176297 0.823703 1 0 0.315775 0.6842250000000001 1 0 0.281971 0.718029 1 0 0.294598 0.705402 1 0 0.294598 0.705402 1 0 0.273594 0.726406 1 0 0.281971 0.718029 1 0 0.111224 0.888776 1 0 0.095039 0.904961 1 0 0.100971 0.899029 1 0 0.100971 0.899029 1 0 0.091179 0.908821 1 0 0.095039 0.904961 1 0 0.231372 0.768628 1 0 0.199783 0.800217 1 0 0.211442 0.788558 1 0 0.211442 0.788558 1 0 0.192144 0.807856 1 0 0.199783 0.800217 1 0 0.080828 0.919172 1 0 0.06740400000000001 0.932596 1 0 0.072283 0.927717 1 0 0.072283 0.927717 1 0 0.06425599999999999 0.935744 1 0 0.06740400000000001 0.932596 1 0 0.205366 0.7946340000000001 1 0 0.173314 0.826686 1 0 0.185056 0.814944 1 0 0.185056 0.814944 1 0 0.165679 0.834321 1 0 0.173314 0.826686 1 0 0.053581 0.946419 1 0 0.042958 0.9570419999999999 1 0 0.046768 0.953232 1 0 0.046768 0.953232 1 0 0.040531 0.959469 1 0 0.042958 0.9570419999999999 1 0 0.189253 0.810747 1 0 0.154031 0.845969 1 0 0.166791 0.833209 1 0 0.166791 0.833209 1 0 0.14583 0.85417 1 0 0.154031 0.845969</probabilities>
		</cpt>
		<cpt id="E1" order="1">
			<parents>E1</parents>
			<probabilities>0.796 0.18 0.024 0 0.912 0.08799999999999999 0 0 1 0.6965 0.2675 0.036 0 0.873 0.127 0 0 1 0.597 0.355 0.048 0 0.834 0.166 0 0 1 0.6965 0.2675 0.036 0 0.873 0.127 0 0 1 0.597 0.355 0.048 0 0.834 0.166 0 0 1 0.4975 0.4425 0.06 0 0.795 0.205 0 0 1 0.597 0.355 0.048 0 0.834 0.166 0 0 1 0.4975 0.4425 0.06 0 0.795 0.205 0 0 1 0.398 0.53 0.07199999999999999 0 0.756 0.244 0 0 1 0.995 0.005 0 0 0.99 0.01 0 0 1 0.8955 0.0925 0.012 0 0.951 0.049 0 0 1 0.796 0.18 0.024 0 0.912 0.08799999999999999 0 0 1 0.8955 0.0925 0.012 0 0.951 0.049 0 0 1 0.796 0.18 0.024 0 0.912 0.08799999999999999 0 0 1 0.6965 0.2675 0.036 0 0.873 0.127 0 0 1 0.796 0.18 0.024 0 0.912 0.08799999999999999 0 0 1 0.6965 0.2675 0.036 0 0.873 0.127 0 0 1 0.597 0.355 0.048 0 0.834 0.166 0 0 1 0.6965 0.2675 0.036 0 0.873 0.127 0 0 1 0.597 0.355 0.048 0 0.834 0.166 0 0 1 0.4975 0.4425 0.06 0 0.795 0.205 0 0 1 0.597 0.355 0.048 0 0.834 0.166 0 0 1 0.4975 0.4425 0.06 0 0.795 0.205 0 0 1 0.398 0.53 0.07199999999999999 0 0.756 0.244 0 0 1 0.4975 0.4425 0.06 0 0.795 0.205 0 0 1 0.398 0.53 0.07199999999999999 0 0.756 0.244 0 0 1 0.2985 0.6175 0.08400000000000001 0 0.717 0.283 0 0 1 0.8955 0.0925 0.012 0 0.951 0.049 0 0 1 0.796 0.18 0.024 0 0.912 0.08799999999999999 0 0 1 0.6965 0.2675 0.036 0 0.873 0.127 0 0 1 0.796 0.18 0.024 0 0.912 0.08799999999999999 0 0 1 0.6965 0.2675 0.036 0 0.873 0.127 0 0 1 0.597 0.355 0.048 0 0.834 0.166 0 0 1 0.6965 0.2675 0.036 0 0.873 0.127 0 0 1 0.597 0.355 0.048 0 0.834 0.166 0 0 1 0.4975 0.4425 0.06 0 0.795 0.205 0 0 1 0.597 0.355 0.048 0 0.834 0.166 0 0 1 0.4975 0.4425 0.06 0 0.795 0.205 0 0 1 0.398 0.53 0.07199999999999999 0 0.756 0.244 0 0 1 0.4975 0.4425 0.06 0 0.795 0.205 0 0 1 0.398 0.53 0.07199999999999999 0 0.756 0.244 0 0 1 0.2985 0.6175 0.08400000000000001 0 0.717 0.283 0 0 1 0.398 0.53 0.07199999999999999 0 0.756 0.244 0 0 1 0.2985 0.6175 0.08400000000000001 0 0.717 0.283 0 0 1 0.199 0.705 0.096 0 0.678 0.322 0 0 1 0.796 0.18 0.024 0 0.912 0.08799999999999999 0 0 1 0.6965 0.2675 0.036 0 0.873 0.127 0 0 1 0.597 0.355 0.048 0 0.834 0.166 0 0 1 0.6965 0.2675 0.036 0 0.873 0.127 0 0 1 0.597 0.355 0.048 0 0.834 0.166 0 0 1 0.4975 0.4425 0.06 0 0.795 0.205 0 0 1 0.597 0.355 0.048 0 0.834 0.166 0 0 1 0.4975 0.4425 0.06 0 0.795 0.205 0 0 1 0.398 0.53 0.07199999999999999 0 0.756 0.244 0 0 1 0.6965 0.2675 0.036 0 0.873 0.127 0 0 1 0.597 0.355 0.048 0 0.834 0.166 0 0 1 0.4975 0.4425 0.06 0 0.795 0.205 0 0 1 0.597 0.355 0.048 0 0.834 0.166 0 0 1 0.4975 0.4425 0.06 0 0.795 0.205 0 0 1 0.398 0.53 0.07199999999999999 0 0.756 0.244 0 0 1 0.4975 0.4425 0.06 0 0.795 0.205 0 0 1 0.398 0.53 0.07199999999999999 0 0.756 0.244 0 0 1 0.2985 0.6175 0.08400000000000001 0 0.717 0.283 0 0 1 0.8955 0.0925 0.012 0 0.951 0.049 0 0 1 0.796 0.18 0.024 0 0.912 0.08799999999999999 0 0 1 0.6965 0.2675 0.036 0 0.873 0.127 0 0 1 0.796 0.18 0.024 0 0.912 0.08799999999999999 0 0 1 0.6965 0.2675 0.036 0 0.873 0.127 0 0 1 0.597 0.355 0.048 0 0.834 0.166 0 0 1 0.6965 0.2675 0.036 0 0.873 0.127 0 0 1 0.597 0.355 0.048 0 0.834 0.166 0 0 1 0.4975 0.4425 0.06 0 0.795 0.205 0 0 1 0.597 0.355 0.048 0 0.834 0.166 0 0 1 0.4975 0.4425 0.06 0 0.795 0.205 0 0 1 0.398 0.53 0.07199999999999999 0 0.756 0.244 0 0 1 0.4975 0.4425 0.06 0 0.795 0.205 0 0 1 0.398 0.53 0.07199999999999999 0 0.756 0.244 0 0 1 0.2985 0.6175 0.08400000000000001 0 0.717 0.283 0 0 1 0.398 0.53 0.07199999999999999 0 0.756 0.244 0 0 1 0.2985 0.6175 0.08400000000000001 0 0.717 0.283 0 0 1 0.199 0.705 0.096 0 0.678 0.322 0 0 1 0.796 0.18 0.024 0 0.912 0.08799999999999999 0 0 1 0.6965 0.2675 0.036 0 0.873 0.127 0 0 1 0.597 0.355 0.048 0 0.834 0.166 0 0 1 0.6965 0.2675 0.036 0 0.873 0.127 0 0 1 0.597 0.355 0.048 0 0.834 0.166 0 0 1 0.4975 0.4425 0.06 0 0.795 0.205 0 0 1 0.597 0.355 0.048 0 0.834 0.166 0 0 1 0.4975 0.4425 0.06 0 0.795 0.205 0 0 1 0.398 0.53 0.07199999999999999 0 0.756 0.244 0 0 1 0.4975 0.4425 0.06 0 0.795 0.205 0 0 1 0.398 0.53 0.07199999999999999 0 0.756 0.244 0 0 1 0.2985 0.6175 0.08400000000000001 0 0.717 0.283 0 0 1 0.398 0.53 0.07199999999999999 0 0.756 0.244 0 0 1 0.2985 0.6175 0.08400000000000001 0 0.717 0.283 0 0 1 0.199 0.705 0.096 0 0.678 0.322 0 0 1 0.2985 0.6175 0.08400000000000001 0 0.717 0.283 0 0 1 0.199 0.705 0.096 0 0.678 0.322 0 0 1 0.09950000000000001 0.7925 0.108 0 0.639 0.361 0 0 1 0.6965 0.2675 0.036 0 0.873 0.127 0 0 1 0.597 0.355 0.048 0 0.834 0.166 0 0 1 0.4975 0.4425 0.06 0 0.795 0.205 0 0 1 0.597 0.355 0.048 0 0.834 0.166 0 0 1 0.4975 0.4425 0.06 0 0.795 0.205 0 0 1 0.398 0.53 0.07199999999999999 0 0.756 0.244 0 0 1 0.4975 0.4425 0.06 0 0.795 0.205 0 0 1 0.398 0.53 0.07199999999999999 0 0.756 0.244 0 0 1 0.2985 0.6175 0.08400000000000001 0 0.717 0.283 0 0 1 0.597 0.355 0.048 0 0.834 0.166 0 0 1 0.4975 0.4425 0.06 0 0.795 0.205 0 0 1 0.398 0.53 0.07199999999999999 0 0.756 0.244 0 0 1 0.4975 0.4425 0.06 0 0.795 0.205 0 0 1 0.398 0.53 0.07199999999999999 0 0.756 0.244 0 0 1 0.2985 0.6175 0.08400000000000001 0 0.717 0.283 0 0 1 0.398 0.53 0.07199999999999999 0 0.756 0.244 0 0 1 0.2985 0.6175 0.08400000000000001 0 0.717 0.283 0 0 1 0.199 0.705 0.096 0 0.678 0.322 0 0 1 0.796 0.18 0.024 0 0.912 0.08799999999999999 0 0 1 0.6965 0.2675 0.036 0 0.873 0.127 0 0 1 0.597 0.355 0.048 0 0.834 0.166 0 0 1 0.6965 0.2675 0.036 0 0.873 0.127 0 0 1 0.597 0.355 0.048 0 0.834 0.166 0 0 1 0.4975 0.4425 0.06 0 0.795 0.205 0 0 1 0.597 0.355 0.048 0 0.834 0.166 0 0 1 0.4975 0.4425 0.06 0 0.795 0.205 0 0 1 0.398 0.53 0.07199999999999999 0 0.756 0.244 0 0 1 0.4975 0.4425 0.06 0 0.795 0.205 0 0 1 0.398 0.53 0.07199999999999999 0 0.756 0.244 0 0 1 0.2985 0.6175 0.08400000000000001 0 0.717 0.283 0 0 1 0.398 0.53 0.07199999999999999 0 0.756 0.244 0 0 1 0.2985 0.6175 0.08400000000000001 0 0.717 0.283 0 0 1 0.199 0.705 0.096 0 0.678 0.322 0 0 1 0.2985 0.6175 0.08400000000000001 0 0.717 0.283 0 0 1 0.199 0.705 0.096 0 0.678 0.322 0 0 1 0.09950000000000001 0.7925 0.108 0 0.639 0.361 0 0 1 0.6965 0.2675 0.036 0 0.873 0.127 0 0 1 0.597 0.355 0.048 0 0.834 0.166 0 0 1 0.4975 0.4425 0.06 0 0.795 0.205 0 0 1 0.597 0.355 0.048 0 0.834 0.166 0 0 1 0.4975 0.4425 0.06 0 0.795 0.205 0 0 1 0.398 0.53 0.07199999999999999 0 0.756 0.244 0 0 1 0.4975 0.4425 0.06 0 0.795 0.205 0 0 1 0.398 0.53 0.07199999999999999 0 0.756 0.244 0 0 1 0.2985 0.6175 0.08400000000000001 0 0.717 0.283 0 0 1 0.398 0.53 0.07199999999999999 0 0.756 0.244 0 0 1 0.2985 0.6175 0.08400000000000001 0 0.717 0.283 0 0 1 0.199 0.705 0.096 0 0.678 0.322 0 0 1 0.2985 0.6175 0.08400000000000001 0 0.717 0.283 0 0 1 0.199 0.705 0.096 0 0.678 0.322 0 0 1 0.09950000000000001 0.7925 0.108 0 0.639 0.361 0 0 1 0.199 0.705 0.096 0 0.678 0.322 0 0 1 0.09950000000000001 0.7925 0.108 0 0.639 0.361 0 0 1 0 0.88 0.12 0 0.6 0.4 0 0 1 0.597 0.355 0.048 0 0.834 0.166 0 0 1 0.4975 0.4425 0.06 0 0.795 0.205 0 0 1 0.398 0.53 0.07199999999999999 0 0.756 0.244 0 0 1 0.4975 0.4425 0.06 0 0.795 0.205 0 0 1 0.398 0.53 0.07199999999999999 0 0.756 0.244 0 0 1 0.2985 0.6175 0.08400000000000001 0 0.717 0.283 0 0 1 0.398 0.53 0.07199999999999999 0 0.756 0.244 0 0 1 0.2985 0.6175 0.08400000000000001 0 0.717 0.283 0 0 1 0.199 0.705 0.096 0 0.678 0.322 0 0 1</probabilities>
		</cpt>
	</dynamic>
	<extensions>
		<genie version="1.0" app="GeNIe 5.0.5310.0 ACADEMIC" name="DBN-copy">
			<plate leftwidth="120" rightwidth="120">790 554 1390 854</plate>
			<node id="X1">
				<name>Soil type</name>
				<interior color="00ffff" />
				<outline color="000000" />
				<font color="000000" name="Times New Roman" size="11" />
				<position>537 512 619 568</position>
				<barchart active="true" width="188" height="147" />
			</node>
			<node id="X2">
				<name>Bulk density</name>
				<interior color="00ffff" />
				<outline color="000000" />
				<font color="000000" name="Times New Roman" size="11" />
				<position>311 599 418 655</position>
				<barchart active="true" width="128" height="84" />
			</node>
			<node id="X3">
				<name>Water content</name>
				<interior color="00ffff" />
				<outline color="000000" />
				<font color="000000" name="Times New Roman" size="11" />
				<position>104 619 202 668</position>
				<barchart active="true" width="138" height="84" />
			</node>
			<node id="X4">
				<name>Soil resistivity</name>
				<interior color="00ffff" />
				<outline color="000000" />
				<font color="000000" name="Times New Roman" size="11" />
				<position>200 38 296 94</position>
				<barchart active="true" width="174" height="101" />
			</node>
			<node id="X5">
				<name>Dissolved chloride ion concentrations</name>
				<interior color="00ffff" />
				<outline color="000000" />
				<font color="000000" name="Times New Roman" size="11" />
				<position>64 259 200 320</position>
				<barchart active="true" width="128" height="84" />
			</node>
			<node id="X6">
				<name>PH value</name>
				<interior color="00ffff" />
				<outline color="000000" />
				<font color="000000" name="Times New Roman" size="11" />
				<position>403 53 507 111</position>
				<barchart active="true" width="180" height="97" />
			</node>
			<node id="X7">
				<name>Sulfate ion concentrations</name>
				<interior color="00ffff" />
				<outline color="000000" />
				<font color="000000" name="Times New Roman" size="11" />
				<position>69 499 186 562</position>
				<barchart active="true" width="128" height="84" />
			</node>
			<node id="X8">
				<name>Bicarbonate ion concentrations</name>
				<interior color="00ffff" />
				<outline color="000000" />
				<font color="000000" name="Times New Roman" size="11" />
				<position>46 374 164 437</position>
				<barchart active="true" width="128" height="84" />
			</node>
			<node id="X9">
				<name>Redox potential</name>
				<interior color="00ffff" />
				<outline color="000000" />
				<font color="000000" name="Times New Roman" size="11" />
				<position>99 152 197 209</position>
				<barchart active="true" width="128" height="84" />
			</node>
			<node id="A2">
				<name>Coating failure</name>
				<interior color="00ff00" />
				<outline color="000000" />
				<font color="000000" name="Times New Roman" size="11" />
				<position>956 760 1057 821</position>
				<barchart active="true" width="128" height="81" />
			</node>
			<node id="X15">
				<name>Pipe-to-soil potential</name>
				<interior color="00ffff" />
				<outline color="000000" />
				<font color="000000" name="Times New Roman" size="11" />
				<position>836 36 931 94</position>
				<barchart active="true" width="172" height="79" />
			</node>
			<node id="E1">
				<name>External corrosion depth</name>
				<interior color="ff9900" />
				<outline color="000000" />
				<font color="000000" name="Times New Roman" size="11" />
				<position>993 614 1108 678</position>
				<barchart active="true" width="169" height="111" />
			</node>
			<node id="A5">
				<name>Operational stress</name>
				<interior color="00ff00" />
				<outline color="000000" />
				<font color="000000" name="Times New Roman" size="11" />
				<position>554 663 651 722</position>
				<barchart active="true" width="163" height="95" />
			</node>
			<node id="A3">
				<name>Third party activity</name>
				<interior color="00ff00" />
				<outline color="000000" />
				<font color="000000" name="Times New Roman" size="11" />
				<position>975 272 1081 340</position>
				<barchart active="true" width="145" height="84" />
			</node>
			<node id="A4">
				<name>Stray current corrosion</name>
				<interior color="00ff00" />
				<outline color="000000" />
				<font color="000000" name="Times New Roman" size="11" />
				<position>740 176 847 238</position>
				<barchart active="true" width="162" height="105" />
			</node>
			<node id="X16">
				<name>Stray current</name>
				<interior color="00ffff" />
				<outline color="000000" />
				<font color="000000" name="Times New Roman" size="11" />
				<position>613 53 709 106</position>
				<barchart active="true" width="172" height="84" />
			</node>
			<node id="X19">
				<name>Seismic risk</name>
				<interior color="00ffff" />
				<outline color="000000" />
				<font color="000000" name="Times New Roman" size="11" />
				<position>628 798 727 855</position>
				<barchart active="true" width="146" height="73" />
			</node>
			<node id="X18">
				<name>Ground movement</name>
				<interior color="00ffff" />
				<outline color="000000" />
				<font color="000000" name="Times New Roman" size="11" />
				<position>248 747 345 800</position>
				<barchart active="true" width="161" height="64" />
			</node>
			<node id="X17">
				<name>Extreme weather</name>
				<interior color="00ffff" />
				<outline color="000000" />
				<font color="000000" name="Times New Roman" size="11" />
				<position>432 770 531 827</position>
				<barchart active="true" width="179" height="64" />
			</node>
			<node id="X20">
				<name>Flooding risk</name>
				<interior color="00ffff" />
				<outline color="000000" />
				<font color="000000" name="Times New Roman" size="11" />
				<position>56 721 154 773</position>
				<barchart active="true" width="175" height="71" />
			</node>
			<node id="X14">
				<name>Excavate frequency</name>
				<interior color="00ffff" />
				<outline color="000000" />
				<font color="000000" name="Times New Roman" size="11" />
				<position>1014 93 1113 144</position>
				<barchart active="true" width="166" height="105" />
			</node>
			<node id="X13">
				<name>Agriculture activity</name>
				<interior color="00ffff" />
				<outline color="000000" />
				<font color="000000" name="Times New Roman" size="11" />
				<position>1215 177 1310 235</position>
				<barchart active="true" width="166" height="105" />
			</node>
			<node id="X12">
				<name>Construction vibration</name>
				<interior color="00ffff" />
				<outline color="000000" />
				<font color="000000" name="Times New Roman" size="11" />
				<position>1217 294 1323 348</position>
				<barchart active="true" width="155" height="105" />
			</node>
			<node id="X10">
				<name>Coating type</name>
				<interior color="00ffff" />
				<outline color="000000" />
				<font color="000000" name="Times New Roman" size="11" />
				<position>1244 427 1337 491</position>
				<barchart active="true" width="182" height="126" />
			</node>
			<node id="X11">
				<name>Pipeline age</name>
				<interior color="00ffff" />
				<outline color="000000" />
				<font color="000000" name="Times New Roman" size="11" />
				<position>1144 756 1231 821</position>
				<barchart active="true" width="156" height="83" />
			</node>
			<node id="A1">
				<name>Soil corrosivity</name>
				<interior color="00ff00" />
				<outline color="000000" />
				<font color="000000" name="Times New Roman" size="12" />
				<position>576 335 689 397</position>
				<barchart active="true" width="166" height="107" />
			</node>
			<node id="Node2">
				<name>Electrochemical index</name>
				<interior color="00ffff" />
				<outline color="000000" />
				<font color="000000" name="Times New Roman" size="11" />
				<position>371 206 487 261</position>
				<barchart active="true" width="165" height="84" />
			</node>
			<node id="Node3">
				<name>Ionic index</name>
				<interior color="00ffff" />
				<outline color="000000" />
				<font color="000000" name="Times New Roman" size="11" />
				<position>280 314 384 365</position>
				<barchart active="true" width="128" height="84" />
			</node>
			<node id="Node4">
				<name>Physical index</name>
				<interior color="00ffff" />
				<outline color="000000" />
				<font color="000000" name="Times New Roman" size="11" />
				<position>261 431 377 491</position>
				<barchart active="true" width="128" height="84" />
			</node>
		</genie>
	</extensions>
</smile>
